<?xml version="1.0"?>
<opencv_storage>
<cascade>
  <stageType>BOOST</stageType>
  <featureType>HAAR</featureType>
  <height>24</height>
  <width>24</width>
  <stageParams>
    <boostType>GAB</boostType>
    <minHitRate>9.9900001287460327e-01</minHitRate>
    <maxFalseAlarm>5.0000000000000000e-01</maxFalseAlarm>
    <weightTrimRate>9.4999999999999996e-01</weightTrimRate>
    <maxDepth>1</maxDepth>
    <maxWeakCount>100</maxWeakCount></stageParams>
  <featureParams>
    <maxCatCount>0</maxCatCount>
    <featSize>1</featSize>
    <mode>BASIC</mode></featureParams>
  <stageNum>14</stageNum>
  <stages>
    <!-- stage 0 -->
    <_>
      <maxWeakCount>3</maxWeakCount>
      <stageThreshold>-1.2851647138595581e+00</stageThreshold>
      <weakClassifiers>
        <_>
          <internalNodes>
            0 -1 148 7.4769509956240654e-03</internalNodes>
          <leafValues>
            -9.0670555830001831e-01 7.3049646615982056e-01</leafValues></_>
        <_>
          <internalNodes>
            0 -1 91 -1.4468727167695761e-03</internalNodes>
          <leafValues>
            4.6354654431343079e-01 -9.4393599033355713e-01</leafValues></_>
        <_>
          <internalNodes>
            0 -1 121 2.9157310724258423e-02</internalNodes>
          <leafValues>
            -8.1042420864105225e-01 5.6547683477401733e-01</leafValues></_></weakClassifiers></_>
    <!-- stage 1 -->
    <_>
      <maxWeakCount>6</maxWeakCount>
      <stageThreshold>-1.4256306886672974e+00</stageThreshold>
      <weakClassifiers>
        <_>
          <internalNodes>
            0 -1 64 2.7890074253082275e-01</internalNodes>
          <leafValues>
            -7.9316544532775879e-01 8.9655172824859619e-01</leafValues></_>
        <_>
          <internalNodes>
            0 -1 89 7.3920926079154015e-03</internalNodes>
          <leafValues>
            -6.0184049606323242e-01 5.7586812973022461e-01</leafValues></_>
        <_>
          <internalNodes>
            0 -1 96 -2.1141007542610168e-02</internalNodes>
          <leafValues>
            6.2893587350845337e-01 -3.9961987733840942e-01</leafValues></_>
        <_>
          <internalNodes>
            0 -1 151 4.8613091930747032e-03</internalNodes>
          <leafValues>
            -4.7381192445755005e-01 4.3752017617225647e-01</leafValues></_>
        <_>
          <internalNodes>
            0 -1 55 -8.4329769015312195e-03</internalNodes>
          <leafValues>
            5.5927842855453491e-01 -3.6809456348419189e-01</leafValues></_>
        <_>
          <internalNodes>
            0 -1 140 -6.1098851263523102e-02</internalNodes>
          <leafValues>
            -8.0862975120544434e-01 2.9956954717636108e-01</leafValues></_></weakClassifiers></_>
    <!-- stage 2 -->
    <_>
      <maxWeakCount>8</maxWeakCount>
      <stageThreshold>-1.7914650440216064e+00</stageThreshold>
      <weakClassifiers>
        <_>
          <internalNodes>
            0 -1 90 -1.0204528272151947e-01</internalNodes>
          <leafValues>
            2.2891566157341003e-01 -8.6454182863235474e-01</leafValues></_>
        <_>
          <internalNodes>
            0 -1 19 -3.3122796565294266e-02</internalNodes>
          <leafValues>
            3.8031691312789917e-01 -7.4561411142349243e-01</leafValues></_>
        <_>
          <internalNodes>
            0 -1 54 -1.4456842094659805e-02</internalNodes>
          <leafValues>
            3.6606732010841370e-01 -6.9484567642211914e-01</leafValues></_>
        <_>
          <internalNodes>
            0 -1 130 -6.2544576823711395e-02</internalNodes>
          <leafValues>
            5.9116053581237793e-01 -3.7746652960777283e-01</leafValues></_>
        <_>
          <internalNodes>
            0 -1 83 2.9831990599632263e-02</internalNodes>
          <leafValues>
            -3.9930945634841919e-01 5.2039629220962524e-01</leafValues></_>
        <_>
          <internalNodes>
            0 -1 9 -1.3590482994914055e-02</internalNodes>
          <leafValues>
            7.0961636304855347e-01 -2.4839773774147034e-01</leafValues></_>
        <_>
          <internalNodes>
            0 -1 114 6.2004651874303818e-02</internalNodes>
          <leafValues>
            -2.9531487822532654e-01 5.8710271120071411e-01</leafValues></_>
        <_>
          <internalNodes>
            0 -1 24 -1.6279146075248718e-01</internalNodes>
          <leafValues>
            8.6539810895919800e-01 -1.8525131046772003e-01</leafValues></_></weakClassifiers></_>
    <!-- stage 3 -->
    <_>
      <maxWeakCount>8</maxWeakCount>
      <stageThreshold>-1.8413081169128418e+00</stageThreshold>
      <weakClassifiers>
        <_>
          <internalNodes>
            0 -1 104 9.7837328910827637e-02</internalNodes>
          <leafValues>
            -8.2230621576309204e-01 3.5714286565780640e-01</leafValues></_>
        <_>
          <internalNodes>
            0 -1 122 5.2677027881145477e-02</internalNodes>
          <leafValues>
            -5.9215950965881348e-01 2.4384033679962158e-01</leafValues></_>
        <_>
          <internalNodes>
            0 -1 7 -4.4718649238348007e-02</internalNodes>
          <leafValues>
            3.2153490185737610e-01 -5.5888485908508301e-01</leafValues></_>
        <_>
          <internalNodes>
            0 -1 17 -8.8510781526565552e-02</internalNodes>
          <leafValues>
            5.1439541578292847e-01 -3.4851166605949402e-01</leafValues></_>
        <_>
          <internalNodes>
            0 -1 136 -3.0873867217451334e-05</internalNodes>
          <leafValues>
            -7.0280748605728149e-01 2.7322092652320862e-01</leafValues></_>
        <_>
          <internalNodes>
            0 -1 34 -1.1411564424633980e-02</internalNodes>
          <leafValues>
            4.9350482225418091e-01 -3.5498470067977905e-01</leafValues></_>
        <_>
          <internalNodes>
            0 -1 137 -6.7591378465294838e-03</internalNodes>
          <leafValues>
            4.0192916989326477e-01 -4.4715541601181030e-01</leafValues></_>
        <_>
          <internalNodes>
            0 -1 70 2.7961577870883048e-05</internalNodes>
          <leafValues>
            2.5898894667625427e-01 -7.0251828432083130e-01</leafValues></_></weakClassifiers></_>
    <!-- stage 4 -->
    <_>
      <maxWeakCount>8</maxWeakCount>
      <stageThreshold>-1.6259896755218506e+00</stageThreshold>
      <weakClassifiers>
        <_>
          <internalNodes>
            0 -1 56 4.0057185292243958e-01</internalNodes>
          <leafValues>
            -7.8241157531738281e-01 4.9253731966018677e-01</leafValues></_>
        <_>
          <internalNodes>
            0 -1 12 -5.8567589148879051e-03</internalNodes>
          <leafValues>
            2.5232848525047302e-01 -5.5226850509643555e-01</leafValues></_>
        <_>
          <internalNodes>
            0 -1 138 1.2814697809517384e-02</internalNodes>
          <leafValues>
            -5.6819605827331543e-01 3.0255663394927979e-01</leafValues></_>
        <_>
          <internalNodes>
            0 -1 4 1.0385336645413190e-04</internalNodes>
          <leafValues>
            2.3390108346939087e-01 -6.4500313997268677e-01</leafValues></_>
        <_>
          <internalNodes>
            0 -1 14 -7.4361771345138550e-02</internalNodes>
          <leafValues>
            3.3840063214302063e-01 -4.6711933612823486e-01</leafValues></_>
        <_>
          <internalNodes>
            0 -1 145 8.3490420365706086e-05</internalNodes>
          <leafValues>
            1.9317710399627686e-01 -7.5363343954086304e-01</leafValues></_>
        <_>
          <internalNodes>
            0 -1 35 9.1533958911895752e-03</internalNodes>
          <leafValues>
            -4.0742874145507813e-01 3.1648123264312744e-01</leafValues></_>
        <_>
          <internalNodes>
            0 -1 77 -9.1895639896392822e-02</internalNodes>
          <leafValues>
            -1. 1.4988858997821808e-01</leafValues></_></weakClassifiers></_>
    <!-- stage 5 -->
    <_>
      <maxWeakCount>9</maxWeakCount>
      <stageThreshold>-1.7510695457458496e+00</stageThreshold>
      <weakClassifiers>
        <_>
          <internalNodes>
            0 -1 150 9.4206370413303375e-03</internalNodes>
          <leafValues>
            -8.0601358413696289e-01 7.1942447684705257e-03</leafValues></_>
        <_>
          <internalNodes>
            0 -1 141 -1.0693264007568359e-01</internalNodes>
          <leafValues>
            7.8211344778537750e-02 -7.9689383506774902e-01</leafValues></_>
        <_>
          <internalNodes>
            0 -1 28 -2.0504423975944519e-01</internalNodes>
          <leafValues>
            7.4799582362174988e-02 -8.8498586416244507e-01</leafValues></_>
        <_>
          <internalNodes>
            0 -1 85 -1.7165515571832657e-02</internalNodes>
          <leafValues>
            3.2184863090515137e-01 -3.5363218188285828e-01</leafValues></_>
        <_>
          <internalNodes>
            0 -1 112 -2.9173624352551997e-04</internalNodes>
          <leafValues>
            -5.6924694776535034e-01 2.0006506145000458e-01</leafValues></_>
        <_>
          <internalNodes>
            0 -1 132 2.6268672198057175e-02</internalNodes>
          <leafValues>
            -2.2102212905883789e-01 4.9346253275871277e-01</leafValues></_>
        <_>
          <internalNodes>
            0 -1 129 4.3536499142646790e-03</internalNodes>
          <leafValues>
            -1.8759299814701080e-01 5.0812637805938721e-01</leafValues></_>
        <_>
          <internalNodes>
            0 -1 2 -2.4007402360439301e-02</internalNodes>
          <leafValues>
            3.1992387771606445e-01 -3.3359706401824951e-01</leafValues></_>
        <_>
          <internalNodes>
            0 -1 105 2.2965778043726459e-05</internalNodes>
          <leafValues>
            1.9780820608139038e-01 -5.6171065568923950e-01</leafValues></_></weakClassifiers></_>
    <!-- stage 6 -->
    <_>
      <maxWeakCount>12</maxWeakCount>
      <stageThreshold>-1.4928038120269775e+00</stageThreshold>
      <weakClassifiers>
        <_>
          <internalNodes>
            0 -1 23 3.3065748214721680e-01</internalNodes>
          <leafValues>
            -7.7959924936294556e-01 3.6111110448837280e-01</leafValues></_>
        <_>
          <internalNodes>
            0 -1 152 9.4376429915428162e-03</internalNodes>
          <leafValues>
            -5.4273438453674316e-01 2.4259003996849060e-01</leafValues></_>
        <_>
          <internalNodes>
            0 -1 125 1.8954243510961533e-02</internalNodes>
          <leafValues>
            -2.8815081715583801e-01 4.1630452871322632e-01</leafValues></_>
        <_>
          <internalNodes>
            0 -1 158 -5.0455369055271149e-03</internalNodes>
          <leafValues>
            1.8736441433429718e-01 -5.2955251932144165e-01</leafValues></_>
        <_>
          <internalNodes>
            0 -1 92 -7.6655834913253784e-02</internalNodes>
          <leafValues>
            -6.6547411680221558e-01 1.6827693581581116e-01</leafValues></_>
        <_>
          <internalNodes>
            0 -1 26 -1.7215467989444733e-02</internalNodes>
          <leafValues>
            1.8365262448787689e-01 -6.4642918109893799e-01</leafValues></_>
        <_>
          <internalNodes>
            0 -1 119 -1.8910167273133993e-04</internalNodes>
          <leafValues>
            2.7158650755882263e-01 -3.2161957025527954e-01</leafValues></_>
        <_>
          <internalNodes>
            0 -1 74 -9.8125925287604332e-03</internalNodes>
          <leafValues>
            3.2504194974899292e-01 -2.9818543791770935e-01</leafValues></_>
        <_>
          <internalNodes>
            0 -1 41 -3.5470619797706604e-02</internalNodes>
          <leafValues>
            4.3175363540649414e-01 -2.0897901058197021e-01</leafValues></_>
        <_>
          <internalNodes>
            0 -1 155 -8.8961787696462125e-05</internalNodes>
          <leafValues>
            -6.1921834945678711e-01 1.3547743856906891e-01</leafValues></_>
        <_>
          <internalNodes>
            0 -1 5 -1.4614318497478962e-02</internalNodes>
          <leafValues>
            -5.7419633865356445e-01 1.4435525238513947e-01</leafValues></_>
        <_>
          <internalNodes>
            0 -1 106 3.2605365850031376e-03</internalNodes>
          <leafValues>
            -2.6405724883079529e-01 3.9023834466934204e-01</leafValues></_></weakClassifiers></_>
    <!-- stage 7 -->
    <_>
      <maxWeakCount>11</maxWeakCount>
      <stageThreshold>-1.4701485633850098e+00</stageThreshold>
      <weakClassifiers>
        <_>
          <internalNodes>
            0 -1 27 1.7016175389289856e-01</internalNodes>
          <leafValues>
            -7.5265020132064819e-01 5.7894736528396606e-01</leafValues></_>
        <_>
          <internalNodes>
            0 -1 38 6.2097185291349888e-03</internalNodes>
          <leafValues>
            -5.0850963592529297e-01 1.0468569397926331e-01</leafValues></_>
        <_>
          <internalNodes>
            0 -1 101 1.1322921141982079e-02</internalNodes>
          <leafValues>
            -2.2603645920753479e-01 4.3197327852249146e-01</leafValues></_>
        <_>
          <internalNodes>
            0 -1 36 -6.6509991884231567e-03</internalNodes>
          <leafValues>
            4.6028241515159607e-01 -2.0352111756801605e-01</leafValues></_>
        <_>
          <internalNodes>
            0 -1 79 -5.5800065398216248e-02</internalNodes>
          <leafValues>
            -4.4132617115974426e-01 1.9285826385021210e-01</leafValues></_>
        <_>
          <internalNodes>
            0 -1 15 7.7699288725852966e-02</internalNodes>
          <leafValues>
            1.8042121827602386e-01 -6.6201776266098022e-01</leafValues></_>
        <_>
          <internalNodes>
            0 -1 108 7.2489131707698107e-04</internalNodes>
          <leafValues>
            -2.1301078796386719e-01 3.6328497529029846e-01</leafValues></_>
        <_>
          <internalNodes>
            0 -1 88 9.2335045337677002e-03</internalNodes>
          <leafValues>
            -2.4747370183467865e-01 3.5022461414337158e-01</leafValues></_>
        <_>
          <internalNodes>
            0 -1 149 3.6458112299442291e-04</internalNodes>
          <leafValues>
            9.7022548317909241e-02 -8.4932917356491089e-01</leafValues></_>
        <_>
          <internalNodes>
            0 -1 99 -8.8987275375984609e-05</internalNodes>
          <leafValues>
            3.1810706853866577e-01 -2.5642672181129456e-01</leafValues></_>
        <_>
          <internalNodes>
            0 -1 146 -3.7910643732175231e-04</internalNodes>
          <leafValues>
            -7.0747679471969604e-01 1.0428641736507416e-01</leafValues></_></weakClassifiers></_>
    <!-- stage 8 -->
    <_>
      <maxWeakCount>15</maxWeakCount>
      <stageThreshold>-1.6414853334426880e+00</stageThreshold>
      <weakClassifiers>
        <_>
          <internalNodes>
            0 -1 57 3.6351260542869568e-01</internalNodes>
          <leafValues>
            -7.5627237558364868e-01 2.5925925374031067e-01</leafValues></_>
        <_>
          <internalNodes>
            0 -1 148 3.3792618196457624e-03</internalNodes>
          <leafValues>
            -6.4094358682632446e-01 -3.0547307804226875e-02</leafValues></_>
        <_>
          <internalNodes>
            0 -1 11 3.8280879380181432e-05</internalNodes>
          <leafValues>
            1.1215738207101822e-01 -5.6571453809738159e-01</leafValues></_>
        <_>
          <internalNodes>
            0 -1 69 -2.1059024147689342e-03</internalNodes>
          <leafValues>
            1.2069105356931686e-01 -6.6152673959732056e-01</leafValues></_>
        <_>
          <internalNodes>
            0 -1 97 -2.4213202297687531e-02</internalNodes>
          <leafValues>
            1.6043168306350708e-01 -5.0175136327743530e-01</leafValues></_>
        <_>
          <internalNodes>
            0 -1 13 -1.0093075037002563e-01</internalNodes>
          <leafValues>
            5.3933328390121460e-01 -1.3756532967090607e-01</leafValues></_>
        <_>
          <internalNodes>
            0 -1 51 -2.8943107463419437e-04</internalNodes>
          <leafValues>
            -4.0389877557754517e-01 1.8516401946544647e-01</leafValues></_>
        <_>
          <internalNodes>
            0 -1 111 1.8687155097723007e-03</internalNodes>
          <leafValues>
            7.6239064335823059e-02 -1.</leafValues></_>
        <_>
          <internalNodes>
            0 -1 143 -4.2647923692129552e-05</internalNodes>
          <leafValues>
            -4.9316105246543884e-01 1.2243556231260300e-01</leafValues></_>
        <_>
          <internalNodes>
            0 -1 144 -1.0332167148590088e-02</internalNodes>
          <leafValues>
            -6.3339298963546753e-01 9.9754147231578827e-02</leafValues></_>
        <_>
          <internalNodes>
            0 -1 94 -8.5103996098041534e-03</internalNodes>
          <leafValues>
            3.2541960477828979e-01 -2.2009594738483429e-01</leafValues></_>
        <_>
          <internalNodes>
            0 -1 127 -5.3424360230565071e-03</internalNodes>
          <leafValues>
            4.6422237157821655e-01 -1.6731208562850952e-01</leafValues></_>
        <_>
          <internalNodes>
            0 -1 59 4.0215775370597839e-02</internalNodes>
          <leafValues>
            -1.5989424288272858e-01 4.5392507314682007e-01</leafValues></_>
        <_>
          <internalNodes>
            0 -1 157 1.6061033238656819e-04</internalNodes>
          <leafValues>
            1.7730344831943512e-01 -4.0462929010391235e-01</leafValues></_>
        <_>
          <internalNodes>
            0 -1 120 -4.6158955228747800e-05</internalNodes>
          <leafValues>
            2.0505693554878235e-01 -2.7982762455940247e-01</leafValues></_></weakClassifiers></_>
    <!-- stage 9 -->
    <_>
      <maxWeakCount>16</maxWeakCount>
      <stageThreshold>-1.5660741329193115e+00</stageThreshold>
      <weakClassifiers>
        <_>
          <internalNodes>
            0 -1 73 3.7634038925170898e-01</internalNodes>
          <leafValues>
            -7.6851850748062134e-01 -1.6913553890773869e-17</leafValues></_>
        <_>
          <internalNodes>
            0 -1 16 -9.0581998229026794e-03</internalNodes>
          <leafValues>
            1.8114374577999115e-01 -4.2252427339553833e-01</leafValues></_>
        <_>
          <internalNodes>
            0 -1 53 -3.8642439991235733e-02</internalNodes>
          <leafValues>
            1.0382784157991409e-01 -6.3834303617477417e-01</leafValues></_>
        <_>
          <internalNodes>
            0 -1 61 -1.1270394548773766e-02</internalNodes>
          <leafValues>
            -2.6501479744911194e-01 3.2271984219551086e-01</leafValues></_>
        <_>
          <internalNodes>
            0 -1 80 -4.9304235726594925e-03</internalNodes>
          <leafValues>
            4.7269716858863831e-01 -1.2251579016447067e-01</leafValues></_>
        <_>
          <internalNodes>
            0 -1 135 -3.9715686580166221e-04</internalNodes>
          <leafValues>
            -6.5476870536804199e-01 8.3755090832710266e-02</leafValues></_>
        <_>
          <internalNodes>
            0 -1 153 2.1221379283815622e-03</internalNodes>
          <leafValues>
            -4.0116545557975769e-01 1.1369190365076065e-01</leafValues></_>
        <_>
          <internalNodes>
            0 -1 0 5.5895554396556690e-05</internalNodes>
          <leafValues>
            1.1293528228998184e-01 -4.9557745456695557e-01</leafValues></_>
        <_>
          <internalNodes>
            0 -1 0 -6.7391665652394295e-05</internalNodes>
          <leafValues>
            -3.7727460265159607e-01 1.6991508007049561e-01</leafValues></_>
        <_>
          <internalNodes>
            0 -1 123 -2.8699357062578201e-04</internalNodes>
          <leafValues>
            2.7758637070655823e-01 -2.3016345500946045e-01</leafValues></_>
        <_>
          <internalNodes>
            0 -1 6 -1.0562933748587966e-03</internalNodes>
          <leafValues>
            1.5274098515510559e-01 -4.3471258878707886e-01</leafValues></_>
        <_>
          <internalNodes>
            0 -1 87 -3.0321026220917702e-02</internalNodes>
          <leafValues>
            -7.9997038841247559e-01 6.8987973034381866e-02</leafValues></_>
        <_>
          <internalNodes>
            0 -1 66 2.8656655922532082e-04</internalNodes>
          <leafValues>
            9.5697991549968719e-02 -5.7206535339355469e-01</leafValues></_>
        <_>
          <internalNodes>
            0 -1 133 7.7966889366507530e-03</internalNodes>
          <leafValues>
            -1.5385057032108307e-01 4.3323689699172974e-01</leafValues></_>
        <_>
          <internalNodes>
            0 -1 65 -3.8206723984330893e-03</internalNodes>
          <leafValues>
            1.8940548598766327e-01 -3.5142648220062256e-01</leafValues></_>
        <_>
          <internalNodes>
            0 -1 47 3.0176953878253698e-03</internalNodes>
          <leafValues>
            -1.3492602109909058e-01 5.4801362752914429e-01</leafValues></_></weakClassifiers></_>
    <!-- stage 10 -->
    <_>
      <maxWeakCount>14</maxWeakCount>
      <stageThreshold>-1.3607349395751953e+00</stageThreshold>
      <weakClassifiers>
        <_>
          <internalNodes>
            0 -1 62 1.4688898809254169e-02</internalNodes>
          <leafValues>
            -7.5984990596771240e-01 -1.9230769574642181e-01</leafValues></_>
        <_>
          <internalNodes>
            0 -1 18 -2.8587657958269119e-02</internalNodes>
          <leafValues>
            -3.5595964640378952e-02 -5.8746254444122314e-01</leafValues></_>
        <_>
          <internalNodes>
            0 -1 25 3.1318260880652815e-05</internalNodes>
          <leafValues>
            8.5573047399520874e-02 -5.2562600374221802e-01</leafValues></_>
        <_>
          <internalNodes>
            0 -1 124 -8.4626767784357071e-03</internalNodes>
          <leafValues>
            3.9542379975318909e-01 -1.2902221083641052e-01</leafValues></_>
        <_>
          <internalNodes>
            0 -1 82 -2.8108182549476624e-01</internalNodes>
          <leafValues>
            6.8365377187728882e-01 -9.2317216098308563e-02</leafValues></_>
        <_>
          <internalNodes>
            0 -1 76 -1.4890178106725216e-02</internalNodes>
          <leafValues>
            -5.5422526597976685e-01 1.1994507908821106e-01</leafValues></_>
        <_>
          <internalNodes>
            0 -1 33 -1.5970781445503235e-02</internalNodes>
          <leafValues>
            1.7654410004615784e-01 -4.4257125258445740e-01</leafValues></_>
        <_>
          <internalNodes>
            0 -1 43 2.4911868385970592e-03</internalNodes>
          <leafValues>
            -1.0686299949884415e-01 6.6690987348556519e-01</leafValues></_>
        <_>
          <internalNodes>
            0 -1 134 -5.9010855853557587e-02</internalNodes>
          <leafValues>
            8.5863962769508362e-02 -8.8203221559524536e-01</leafValues></_>
        <_>
          <internalNodes>
            0 -1 107 -2.0720861852169037e-02</internalNodes>
          <leafValues>
            -1.7610664665699005e-01 3.5844266414642334e-01</leafValues></_>
        <_>
          <internalNodes>
            0 -1 67 -2.2932367864996195e-03</internalNodes>
          <leafValues>
            3.1833115220069885e-01 -1.8941886723041534e-01</leafValues></_>
        <_>
          <internalNodes>
            0 -1 39 1.7061323160305619e-03</internalNodes>
          <leafValues>
            -4.2858356237411499e-01 1.4063756167888641e-01</leafValues></_>
        <_>
          <internalNodes>
            0 -1 32 -1.0362214408814907e-02</internalNodes>
          <leafValues>
            -8.9071112871170044e-01 5.9584818780422211e-02</leafValues></_>
        <_>
          <internalNodes>
            0 -1 139 9.0296569396741688e-05</internalNodes>
          <leafValues>
            1.3446067273616791e-01 -3.8126271963119507e-01</leafValues></_></weakClassifiers></_>
    <!-- stage 11 -->
    <_>
      <maxWeakCount>16</maxWeakCount>
      <stageThreshold>-1.4703048467636108e+00</stageThreshold>
      <weakClassifiers>
        <_>
          <internalNodes>
            0 -1 49 2.8673940896987915e-01</internalNodes>
          <leafValues>
            -7.4028271436691284e-01 2.1052631735801697e-01</leafValues></_>
        <_>
          <internalNodes>
            0 -1 147 7.0750713348388672e-03</internalNodes>
          <leafValues>
            -4.1041144728660583e-01 6.9593787193298340e-02</leafValues></_>
        <_>
          <internalNodes>
            0 -1 81 -9.2242369428277016e-03</internalNodes>
          <leafValues>
            5.5942445993423462e-02 -7.8062695264816284e-01</leafValues></_>
        <_>
          <internalNodes>
            0 -1 31 -1.9539492204785347e-02</internalNodes>
          <leafValues>
            2.8688654303550720e-01 -1.9054639339447021e-01</leafValues></_>
        <_>
          <internalNodes>
            0 -1 46 -1.8805065751075745e-01</internalNodes>
          <leafValues>
            6.8116098642349243e-01 -1.0419683158397675e-01</leafValues></_>
        <_>
          <internalNodes>
            0 -1 1 2.9469132423400879e-02</internalNodes>
          <leafValues>
            9.2015169560909271e-02 -7.4378985166549683e-01</leafValues></_>
        <_>
          <internalNodes>
            0 -1 102 3.1396758276969194e-03</internalNodes>
          <leafValues>
            -2.3429879546165466e-01 2.2499601542949677e-01</leafValues></_>
        <_>
          <internalNodes>
            0 -1 110 -3.3588672522455454e-04</internalNodes>
          <leafValues>
            2.8021124005317688e-01 -1.8865825235843658e-01</leafValues></_>
        <_>
          <internalNodes>
            0 -1 126 2.9909845441579819e-02</internalNodes>
          <leafValues>
            -2.1347087621688843e-01 2.7904561161994934e-01</leafValues></_>
        <_>
          <internalNodes>
            0 -1 131 5.1797847263514996e-03</internalNodes>
          <leafValues>
            -1.1786243319511414e-01 4.0465945005416870e-01</leafValues></_>
        <_>
          <internalNodes>
            0 -1 142 -9.7076017482322641e-06</internalNodes>
          <leafValues>
            -2.9705455899238586e-01 1.8381787836551666e-01</leafValues></_>
        <_>
          <internalNodes>
            0 -1 21 -5.4653908591717482e-04</internalNodes>
          <leafValues>
            1.8632730841636658e-01 -2.9923596978187561e-01</leafValues></_>
        <_>
          <internalNodes>
            0 -1 113 7.1991108357906342e-02</internalNodes>
          <leafValues>
            7.9128853976726532e-02 -7.4138540029525757e-01</leafValues></_>
        <_>
          <internalNodes>
            0 -1 109 8.6430038209073246e-05</internalNodes>
          <leafValues>
            -2.3417301476001740e-01 1.9692027568817139e-01</leafValues></_>
        <_>
          <internalNodes>
            0 -1 117 2.8986535966396332e-02</internalNodes>
          <leafValues>
            -1.2343635410070419e-01 4.4640877842903137e-01</leafValues></_>
        <_>
          <internalNodes>
            0 -1 10 -3.4649726003408432e-03</internalNodes>
          <leafValues>
            2.2303099930286407e-01 -2.4577809870243073e-01</leafValues></_></weakClassifiers></_>
    <!-- stage 12 -->
    <_>
      <maxWeakCount>18</maxWeakCount>
      <stageThreshold>-1.5133016109466553e+00</stageThreshold>
      <weakClassifiers>
        <_>
          <internalNodes>
            0 -1 60 7.3670133948326111e-02</internalNodes>
          <leafValues>
            -7.6819920539855957e-01 -2.2222222387790680e-01</leafValues></_>
        <_>
          <internalNodes>
            0 -1 30 -6.2256101518869400e-03</internalNodes>
          <leafValues>
            1.2121292203664780e-01 -3.6688968539237976e-01</leafValues></_>
        <_>
          <internalNodes>
            0 -1 78 -4.0793459629639983e-04</internalNodes>
          <leafValues>
            -5.1628738641738892e-01 1.0459648817777634e-01</leafValues></_>
        <_>
          <internalNodes>
            0 -1 29 -1.2867606710642576e-04</internalNodes>
          <leafValues>
            -4.0733438730239868e-01 1.2332223355770111e-01</leafValues></_>
        <_>
          <internalNodes>
            0 -1 40 5.6284854508703575e-05</internalNodes>
          <leafValues>
            2.0081302523612976e-01 -2.9078349471092224e-01</leafValues></_>
        <_>
          <internalNodes>
            0 -1 42 5.6970724835991859e-04</internalNodes>
          <leafValues>
            -8.4806591272354126e-02 5.2530622482299805e-01</leafValues></_>
        <_>
          <internalNodes>
            0 -1 68 7.1479393227491528e-05</internalNodes>
          <leafValues>
            1.4334426820278168e-01 -3.9993578195571899e-01</leafValues></_>
        <_>
          <internalNodes>
            0 -1 128 -1.1604840983636677e-04</internalNodes>
          <leafValues>
            1.7345410585403442e-01 -2.9814061522483826e-01</leafValues></_>
        <_>
          <internalNodes>
            0 -1 3 -5.4693993180990219e-02</internalNodes>
          <leafValues>
            -5.0501692295074463e-01 1.1350758373737335e-01</leafValues></_>
        <_>
          <internalNodes>
            0 -1 118 -7.3069930076599121e-02</internalNodes>
          <leafValues>
            1.1128313094377518e-01 -4.9513247609138489e-01</leafValues></_>
        <_>
          <internalNodes>
            0 -1 116 1.2357259402051568e-03</internalNodes>
          <leafValues>
            -1.8828575313091278e-01 3.2222396135330200e-01</leafValues></_>
        <_>
          <internalNodes>
            0 -1 84 -2.0257517695426941e-02</internalNodes>
          <leafValues>
            1.1494354158639908e-01 -5.7030445337295532e-01</leafValues></_>
        <_>
          <internalNodes>
            0 -1 45 -7.2432793676853180e-02</internalNodes>
          <leafValues>
            1.8797101080417633e-01 -3.1470438838005066e-01</leafValues></_>
        <_>
          <internalNodes>
            0 -1 103 6.6229491494596004e-04</internalNodes>
          <leafValues>
            -2.0751312375068665e-01 2.6679381728172302e-01</leafValues></_>
        <_>
          <internalNodes>
            0 -1 58 4.3873973190784454e-02</internalNodes>
          <leafValues>
            -6.8839944899082184e-02 7.6176416873931885e-01</leafValues></_>
        <_>
          <internalNodes>
            0 -1 37 2.8751548379659653e-03</internalNodes>
          <leafValues>
            8.5093729197978973e-02 -6.8145561218261719e-01</leafValues></_>
        <_>
          <internalNodes>
            0 -1 100 1.4347848296165466e-01</internalNodes>
          <leafValues>
            -1.2449301034212112e-01 4.9434903264045715e-01</leafValues></_>
        <_>
          <internalNodes>
            0 -1 20 1.4108170289546251e-03</internalNodes>
          <leafValues>
            -1.3516424596309662e-01 4.3612143397331238e-01</leafValues></_></weakClassifiers></_>
    <!-- stage 13 -->
    <_>
      <maxWeakCount>18</maxWeakCount>
      <stageThreshold>-1.5612623691558838e+00</stageThreshold>
      <weakClassifiers>
        <_>
          <internalNodes>
            0 -1 50 7.5193732976913452e-02</internalNodes>
          <leafValues>
            -7.3651635646820068e-01 7.6923079788684845e-02</leafValues></_>
        <_>
          <internalNodes>
            0 -1 63 1.0746502084657550e-03</internalNodes>
          <leafValues>
            -3.1294047832489014e-01 2.4293148517608643e-01</leafValues></_>
        <_>
          <internalNodes>
            0 -1 93 -2.9917897656559944e-02</internalNodes>
          <leafValues>
            -2.2242051362991333e-01 2.8505086898803711e-01</leafValues></_>
        <_>
          <internalNodes>
            0 -1 156 -7.3621305637061596e-03</internalNodes>
          <leafValues>
            9.1210916638374329e-02 -6.0191434621810913e-01</leafValues></_>
        <_>
          <internalNodes>
            0 -1 98 5.9936069883406162e-03</internalNodes>
          <leafValues>
            9.8028086125850677e-02 -8.3395951986312866e-01</leafValues></_>
        <_>
          <internalNodes>
            0 -1 154 2.7017244137823582e-03</internalNodes>
          <leafValues>
            -1.4740741252899170e-01 3.8666102290153503e-01</leafValues></_>
        <_>
          <internalNodes>
            0 -1 48 -1.0067941620945930e-02</internalNodes>
          <leafValues>
            5.7764556258916855e-02 -8.6075985431671143e-01</leafValues></_>
        <_>
          <internalNodes>
            0 -1 44 -3.1836505513638258e-05</internalNodes>
          <leafValues>
            -1.8858593702316284e-01 3.2483443617820740e-01</leafValues></_>
        <_>
          <internalNodes>
            0 -1 86 -4.3980546295642853e-02</internalNodes>
          <leafValues>
            -7.5861208140850067e-02 8.6003041267395020e-01</leafValues></_>
        <_>
          <internalNodes>
            0 -1 22 -1.7984546720981598e-02</internalNodes>
          <leafValues>
            2.4737760424613953e-01 -2.0185570418834686e-01</leafValues></_>
        <_>
          <internalNodes>
            0 -1 71 -5.1787532866001129e-02</internalNodes>
          <leafValues>
            4.3009930849075317e-01 -1.4657776057720184e-01</leafValues></_>
        <_>
          <internalNodes>
            0 -1 124 -8.4383115172386169e-03</internalNodes>
          <leafValues>
            3.6431306600570679e-01 -1.6236402094364166e-01</leafValues></_>
        <_>
          <internalNodes>
            0 -1 115 4.9720061942934990e-03</internalNodes>
          <leafValues>
            9.0474866330623627e-02 -7.4525350332260132e-01</leafValues></_>
        <_>
          <internalNodes>
            0 -1 72 7.4438169598579407e-02</internalNodes>
          <leafValues>
            -1.9286209344863892e-01 3.6944749951362610e-01</leafValues></_>
        <_>
          <internalNodes>
            0 -1 95 2.5097761303186417e-02</internalNodes>
          <leafValues>
            6.8083740770816803e-02 -1.</leafValues></_>
        <_>
          <internalNodes>
            0 -1 8 2.9889149591326714e-03</internalNodes>
          <leafValues>
            -1.1046017706394196e-01 5.6836706399917603e-01</leafValues></_>
        <_>
          <internalNodes>
            0 -1 75 1.0997425764799118e-02</internalNodes>
          <leafValues>
            -2.2704359889030457e-01 2.3453775048255920e-01</leafValues></_>
        <_>
          <internalNodes>
            0 -1 52 5.9117712080478668e-03</internalNodes>
          <leafValues>
            7.9243510961532593e-02 -6.4357852935791016e-01</leafValues></_></weakClassifiers></_></stages>
  <features>
    <_>
      <rects>
        <_>
          0 0 1 2 -1.</_>
        <_>
          0 1 1 1 2.</_></rects>
      <tilted>0</tilted></_>
    <_>
      <rects>
        <_>
          0 0 1 24 -1.</_>
        <_>
          0 12 1 12 2.</_></rects>
      <tilted>0</tilted></_>
    <_>
      <rects>
        <_>
          0 0 4 24 -1.</_>
        <_>
          2 0 2 24 2.</_></rects>
      <tilted>0</tilted></_>
    <_>
      <rects>
        <_>
          0 0 3 6 -1.</_>
        <_>
          0 2 3 2 2.</_></rects>
      <tilted>0</tilted></_>
    <_>
      <rects>
        <_>
          0 0 4 2 -1.</_>
        <_>
          0 1 4 1 2.</_></rects>
      <tilted>0</tilted></_>
    <_>
      <rects>
        <_>
          0 0 24 1 -1.</_>
        <_>
          12 0 12 1 2.</_></rects>
      <tilted>0</tilted></_>
    <_>
      <rects>
        <_>
          0 0 21 2 -1.</_>
        <_>
          0 1 21 1 2.</_></rects>
      <tilted>0</tilted></_>
    <_>
      <rects>
        <_>
          0 0 24 8 -1.</_>
        <_>
          0 4 24 4 2.</_></rects>
      <tilted>0</tilted></_>
    <_>
      <rects>
        <_>
          0 1 2 21 -1.</_>
        <_>
          1 1 1 21 2.</_></rects>
      <tilted>0</tilted></_>
    <_>
      <rects>
        <_>
          0 1 10 2 -1.</_>
        <_>
          5 1 5 2 2.</_></rects>
      <tilted>0</tilted></_>
    <_>
      <rects>
        <_>
          0 1 6 6 -1.</_>
        <_>
          0 4 6 3 2.</_></rects>
      <tilted>0</tilted></_>
    <_>
      <rects>
        <_>
          0 2 2 2 -1.</_>
        <_>
          1 2 1 2 2.</_></rects>
      <tilted>0</tilted></_>
    <_>
      <rects>
        <_>
          0 2 2 21 -1.</_>
        <_>
          1 2 1 21 2.</_></rects>
      <tilted>0</tilted></_>
    <_>
      <rects>
        <_>
          0 2 6 19 -1.</_>
        <_>
          3 2 3 19 2.</_></rects>
      <tilted>0</tilted></_>
    <_>
      <rects>
        <_>
          0 2 14 18 -1.</_>
        <_>
          7 2 7 18 2.</_></rects>
      <tilted>0</tilted></_>
    <_>
      <rects>
        <_>
          0 2 22 20 -1.</_>
        <_>
          11 2 11 20 2.</_></rects>
      <tilted>0</tilted></_>
    <_>
      <rects>
        <_>
          0 3 2 21 -1.</_>
        <_>
          1 3 1 21 2.</_></rects>
      <tilted>0</tilted></_>
    <_>
      <rects>
        <_>
          0 3 12 13 -1.</_>
        <_>
          6 3 6 13 2.</_></rects>
      <tilted>0</tilted></_>
    <_>
      <rects>
        <_>
          0 3 21 10 -1.</_>
        <_>
          0 8 21 5 2.</_></rects>
      <tilted>0</tilted></_>
    <_>
      <rects>
        <_>
          0 4 6 20 -1.</_>
        <_>
          3 4 3 20 2.</_></rects>
      <tilted>0</tilted></_>
    <_>
      <rects>
        <_>
          0 4 10 2 -1.</_>
        <_>
          0 4 5 1 2.</_>
        <_>
          5 5 5 1 2.</_></rects>
      <tilted>0</tilted></_>
    <_>
      <rects>
        <_>
          0 4 16 2 -1.</_>
        <_>
          0 4 8 1 2.</_>
        <_>
          8 5 8 1 2.</_></rects>
      <tilted>0</tilted></_>
    <_>
      <rects>
        <_>
          0 5 4 15 -1.</_>
        <_>
          2 5 2 15 2.</_></rects>
      <tilted>0</tilted></_>
    <_>
      <rects>
        <_>
          0 5 22 16 -1.</_>
        <_>
          0 5 11 8 2.</_>
        <_>
          11 13 11 8 2.</_></rects>
      <tilted>0</tilted></_>
    <_>
      <rects>
        <_>
          0 6 22 18 -1.</_>
        <_>
          0 6 11 9 2.</_>
        <_>
          11 15 11 9 2.</_></rects>
      <tilted>0</tilted></_>
    <_>
      <rects>
        <_>
          0 7 6 1 -1.</_>
        <_>
          3 7 3 1 2.</_></rects>
      <tilted>0</tilted></_>
    <_>
      <rects>
        <_>
          0 9 1 12 -1.</_>
        <_>
          0 13 1 4 2.</_></rects>
      <tilted>0</tilted></_>
    <_>
      <rects>
        <_>
          0 12 18 10 -1.</_>
        <_>
          0 12 9 5 2.</_>
        <_>
          9 17 9 5 2.</_></rects>
      <tilted>0</tilted></_>
    <_>
      <rects>
        <_>
          0 12 16 12 -1.</_>
        <_>
          0 16 16 4 2.</_></rects>
      <tilted>0</tilted></_>
    <_>
      <rects>
        <_>
          0 13 1 2 -1.</_>
        <_>
          0 14 1 1 2.</_></rects>
      <tilted>0</tilted></_>
    <_>
      <rects>
        <_>
          0 13 2 9 -1.</_>
        <_>
          1 13 1 9 2.</_></rects>
      <tilted>0</tilted></_>
    <_>
      <rects>
        <_>
          0 13 4 11 -1.</_>
        <_>
          2 13 2 11 2.</_></rects>
      <tilted>0</tilted></_>
    <_>
      <rects>
        <_>
          0 14 1 10 -1.</_>
        <_>
          0 19 1 5 2.</_></rects>
      <tilted>0</tilted></_>
    <_>
      <rects>
        <_>
          0 15 1 9 -1.</_>
        <_>
          0 18 1 3 2.</_></rects>
      <tilted>0</tilted></_>
    <_>
      <rects>
        <_>
          0 15 4 8 -1.</_>
        <_>
          2 15 2 8 2.</_></rects>
      <tilted>0</tilted></_>
    <_>
      <rects>
        <_>
          0 20 17 4 -1.</_>
        <_>
          0 22 17 2 2.</_></rects>
      <tilted>0</tilted></_>
    <_>
      <rects>
        <_>
          0 21 4 3 -1.</_>
        <_>
          2 21 2 3 2.</_></rects>
      <tilted>0</tilted></_>
    <_>
      <rects>
        <_>
          0 22 6 2 -1.</_>
        <_>
          3 22 3 2 2.</_></rects>
      <tilted>0</tilted></_>
    <_>
      <rects>
        <_>
          0 22 23 2 -1.</_>
        <_>
          0 23 23 1 2.</_></rects>
      <tilted>0</tilted></_>
    <_>
      <rects>
        <_>
          0 22 24 2 -1.</_>
        <_>
          0 23 24 1 2.</_></rects>
      <tilted>0</tilted></_>
    <_>
      <rects>
        <_>
          1 0 12 2 -1.</_>
        <_>
          1 0 6 1 2.</_>
        <_>
          7 1 6 1 2.</_></rects>
      <tilted>0</tilted></_>
    <_>
      <rects>
        <_>
          1 0 17 4 -1.</_>
        <_>
          1 2 17 2 2.</_></rects>
      <tilted>0</tilted></_>
    <_>
      <rects>
        <_>
          1 2 2 2 -1.</_>
        <_>
          1 2 1 1 2.</_>
        <_>
          2 3 1 1 2.</_></rects>
      <tilted>0</tilted></_>
    <_>
      <rects>
        <_>
          1 4 2 12 -1.</_>
        <_>
          2 4 1 12 2.</_></rects>
      <tilted>0</tilted></_>
    <_>
      <rects>
        <_>
          1 4 6 4 -1.</_>
        <_>
          4 4 3 4 2.</_></rects>
      <tilted>0</tilted></_>
    <_>
      <rects>
        <_>
          1 4 14 18 -1.</_>
        <_>
          8 4 7 18 2.</_></rects>
      <tilted>0</tilted></_>
    <_>
      <rects>
        <_>
          1 4 18 12 -1.</_>
        <_>
          1 4 9 6 2.</_>
        <_>
          10 10 9 6 2.</_></rects>
      <tilted>0</tilted></_>
    <_>
      <rects>
        <_>
          1 4 21 2 -1.</_>
        <_>
          1 5 21 1 2.</_></rects>
      <tilted>0</tilted></_>
    <_>
      <rects>
        <_>
          1 5 2 6 -1.</_>
        <_>
          1 7 2 2 2.</_></rects>
      <tilted>0</tilted></_>
    <_>
      <rects>
        <_>
          1 8 16 14 -1.</_>
        <_>
          1 8 8 7 2.</_>
        <_>
          9 15 8 7 2.</_></rects>
      <tilted>0</tilted></_>
    <_>
      <rects>
        <_>
          1 14 14 6 -1.</_>
        <_>
          1 14 7 3 2.</_>
        <_>
          8 17 7 3 2.</_></rects>
      <tilted>0</tilted></_>
    <_>
      <rects>
        <_>
          1 16 1 8 -1.</_>
        <_>
          1 20 1 4 2.</_></rects>
      <tilted>0</tilted></_>
    <_>
      <rects>
        <_>
          1 20 4 4 -1.</_>
        <_>
          1 20 2 2 2.</_>
        <_>
          3 22 2 2 2.</_></rects>
      <tilted>0</tilted></_>
    <_>
      <rects>
        <_>
          1 21 10 3 -1.</_>
        <_>
          1 22 10 1 2.</_></rects>
      <tilted>0</tilted></_>
    <_>
      <rects>
        <_>
          2 0 21 4 -1.</_>
        <_>
          2 2 21 2 2.</_></rects>
      <tilted>0</tilted></_>
    <_>
      <rects>
        <_>
          2 0 22 2 -1.</_>
        <_>
          2 1 22 1 2.</_></rects>
      <tilted>0</tilted></_>
    <_>
      <rects>
        <_>
          2 3 22 18 -1.</_>
        <_>
          2 3 11 9 2.</_>
        <_>
          13 12 11 9 2.</_></rects>
      <tilted>0</tilted></_>
    <_>
      <rects>
        <_>
          2 4 20 16 -1.</_>
        <_>
          2 4 10 8 2.</_>
        <_>
          12 12 10 8 2.</_></rects>
      <tilted>0</tilted></_>
    <_>
      <rects>
        <_>
          2 8 6 15 -1.</_>
        <_>
          5 8 3 15 2.</_></rects>
      <tilted>0</tilted></_>
    <_>
      <rects>
        <_>
          2 11 20 6 -1.</_>
        <_>
          2 11 10 3 2.</_>
        <_>
          12 14 10 3 2.</_></rects>
      <tilted>0</tilted></_>
    <_>
      <rects>
        <_>
          2 14 14 8 -1.</_>
        <_>
          2 14 7 4 2.</_>
        <_>
          9 18 7 4 2.</_></rects>
      <tilted>0</tilted></_>
    <_>
      <rects>
        <_>
          2 21 3 2 -1.</_>
        <_>
          3 21 1 2 2.</_></rects>
      <tilted>0</tilted></_>
    <_>
      <rects>
        <_>
          2 21 10 1 -1.</_>
        <_>
          7 21 5 1 2.</_></rects>
      <tilted>0</tilted></_>
    <_>
      <rects>
        <_>
          2 22 1 2 -1.</_>
        <_>
          2 23 1 1 2.</_></rects>
      <tilted>0</tilted></_>
    <_>
      <rects>
        <_>
          3 4 20 16 -1.</_>
        <_>
          3 4 10 8 2.</_>
        <_>
          13 12 10 8 2.</_></rects>
      <tilted>0</tilted></_>
    <_>
      <rects>
        <_>
          3 9 4 9 -1.</_>
        <_>
          5 9 2 9 2.</_></rects>
      <tilted>0</tilted></_>
    <_>
      <rects>
        <_>
          3 11 2 2 -1.</_>
        <_>
          3 11 1 1 2.</_>
        <_>
          4 12 1 1 2.</_></rects>
      <tilted>0</tilted></_>
    <_>
      <rects>
        <_>
          3 13 3 4 -1.</_>
        <_>
          3 15 3 2 2.</_></rects>
      <tilted>0</tilted></_>
    <_>
      <rects>
        <_>
          4 0 4 1 -1.</_>
        <_>
          6 0 2 1 2.</_></rects>
      <tilted>0</tilted></_>
    <_>
      <rects>
        <_>
          4 0 17 4 -1.</_>
        <_>
          4 2 17 2 2.</_></rects>
      <tilted>0</tilted></_>
    <_>
      <rects>
        <_>
          4 1 3 2 -1.</_>
        <_>
          4 2 3 1 2.</_></rects>
      <tilted>0</tilted></_>
    <_>
      <rects>
        <_>
          4 1 8 12 -1.</_>
        <_>
          4 1 4 6 2.</_>
        <_>
          8 7 4 6 2.</_></rects>
      <tilted>0</tilted></_>
    <_>
      <rects>
        <_>
          4 2 18 8 -1.</_>
        <_>
          13 2 9 8 2.</_></rects>
      <tilted>0</tilted></_>
    <_>
      <rects>
        <_>
          4 3 20 18 -1.</_>
        <_>
          4 3 10 9 2.</_>
        <_>
          14 12 10 9 2.</_></rects>
      <tilted>0</tilted></_>
    <_>
      <rects>
        <_>
          4 4 11 4 -1.</_>
        <_>
          4 6 11 2 2.</_></rects>
      <tilted>0</tilted></_>
    <_>
      <rects>
        <_>
          4 20 8 4 -1.</_>
        <_>
          4 22 8 2 2.</_></rects>
      <tilted>0</tilted></_>
    <_>
      <rects>
        <_>
          4 21 6 1 -1.</_>
        <_>
          6 21 2 1 2.</_></rects>
      <tilted>0</tilted></_>
    <_>
      <rects>
        <_>
          4 23 15 1 -1.</_>
        <_>
          9 23 5 1 2.</_></rects>
      <tilted>0</tilted></_>
    <_>
      <rects>
        <_>
          5 1 6 2 -1.</_>
        <_>
          5 1 3 1 2.</_>
        <_>
          8 2 3 1 2.</_></rects>
      <tilted>0</tilted></_>
    <_>
      <rects>
        <_>
          5 4 3 9 -1.</_>
        <_>
          5 7 3 3 2.</_></rects>
      <tilted>0</tilted></_>
    <_>
      <rects>
        <_>
          5 8 4 4 -1.</_>
        <_>
          5 8 2 2 2.</_>
        <_>
          7 10 2 2 2.</_></rects>
      <tilted>0</tilted></_>
    <_>
      <rects>
        <_>
          5 18 2 6 -1.</_>
        <_>
          5 20 2 2 2.</_></rects>
      <tilted>0</tilted></_>
    <_>
      <rects>
        <_>
          6 2 18 20 -1.</_>
        <_>
          6 2 9 10 2.</_>
        <_>
          15 12 9 10 2.</_></rects>
      <tilted>0</tilted></_>
    <_>
      <rects>
        <_>
          6 16 12 8 -1.</_>
        <_>
          6 20 12 4 2.</_></rects>
      <tilted>0</tilted></_>
    <_>
      <rects>
        <_>
          7 0 12 1 -1.</_>
        <_>
          11 0 4 1 2.</_></rects>
      <tilted>0</tilted></_>
    <_>
      <rects>
        <_>
          7 6 12 6 -1.</_>
        <_>
          7 9 12 3 2.</_></rects>
      <tilted>0</tilted></_>
    <_>
      <rects>
        <_>
          7 9 12 9 -1.</_>
        <_>
          7 12 12 3 2.</_></rects>
      <tilted>0</tilted></_>
    <_>
      <rects>
        <_>
          7 10 10 6 -1.</_>
        <_>
          7 13 10 3 2.</_></rects>
      <tilted>0</tilted></_>
    <_>
      <rects>
        <_>
          7 17 9 4 -1.</_>
        <_>
          7 19 9 2 2.</_></rects>
      <tilted>0</tilted></_>
    <_>
      <rects>
        <_>
          7 22 16 2 -1.</_>
        <_>
          7 23 16 1 2.</_></rects>
      <tilted>0</tilted></_>
    <_>
      <rects>
        <_>
          8 0 6 16 -1.</_>
        <_>
          8 8 6 8 2.</_></rects>
      <tilted>0</tilted></_>
    <_>
      <rects>
        <_>
          8 0 12 6 -1.</_>
        <_>
          8 3 12 3 2.</_></rects>
      <tilted>0</tilted></_>
    <_>
      <rects>
        <_>
          8 1 6 5 -1.</_>
        <_>
          10 1 2 5 2.</_></rects>
      <tilted>0</tilted></_>
    <_>
      <rects>
        <_>
          8 11 5 6 -1.</_>
        <_>
          8 13 5 2 2.</_></rects>
      <tilted>0</tilted></_>
    <_>
      <rects>
        <_>
          9 0 12 4 -1.</_>
        <_>
          9 0 6 2 2.</_>
        <_>
          15 2 6 2 2.</_></rects>
      <tilted>0</tilted></_>
    <_>
      <rects>
        <_>
          9 0 14 1 -1.</_>
        <_>
          16 0 7 1 2.</_></rects>
      <tilted>0</tilted></_>
    <_>
      <rects>
        <_>
          9 2 4 8 -1.</_>
        <_>
          9 6 4 4 2.</_></rects>
      <tilted>0</tilted></_>
    <_>
      <rects>
        <_>
          9 3 15 1 -1.</_>
        <_>
          14 3 5 1 2.</_></rects>
      <tilted>0</tilted></_>
    <_>
      <rects>
        <_>
          9 10 8 2 -1.</_>
        <_>
          9 10 4 1 2.</_>
        <_>
          13 11 4 1 2.</_></rects>
      <tilted>0</tilted></_>
    <_>
      <rects>
        <_>
          9 16 1 6 -1.</_>
        <_>
          9 19 1 3 2.</_></rects>
      <tilted>0</tilted></_>
    <_>
      <rects>
        <_>
          10 1 14 14 -1.</_>
        <_>
          10 1 7 7 2.</_>
        <_>
          17 8 7 7 2.</_></rects>
      <tilted>0</tilted></_>
    <_>
      <rects>
        <_>
          10 3 6 6 -1.</_>
        <_>
          10 3 3 3 2.</_>
        <_>
          13 6 3 3 2.</_></rects>
      <tilted>0</tilted></_>
    <_>
      <rects>
        <_>
          10 6 6 14 -1.</_>
        <_>
          13 6 3 14 2.</_></rects>
      <tilted>0</tilted></_>
    <_>
      <rects>
        <_>
          10 9 6 4 -1.</_>
        <_>
          10 9 3 2 2.</_>
        <_>
          13 11 3 2 2.</_></rects>
      <tilted>0</tilted></_>
    <_>
      <rects>
        <_>
          10 12 7 12 -1.</_>
        <_>
          10 18 7 6 2.</_></rects>
      <tilted>0</tilted></_>
    <_>
      <rects>
        <_>
          11 1 2 2 -1.</_>
        <_>
          12 1 1 2 2.</_></rects>
      <tilted>0</tilted></_>
    <_>
      <rects>
        <_>
          11 2 2 20 -1.</_>
        <_>
          11 2 1 10 2.</_>
        <_>
          12 12 1 10 2.</_></rects>
      <tilted>0</tilted></_>
    <_>
      <rects>
        <_>
          11 6 2 12 -1.</_>
        <_>
          11 10 2 4 2.</_></rects>
      <tilted>0</tilted></_>
    <_>
      <rects>
        <_>
          11 8 1 4 -1.</_>
        <_>
          11 10 1 2 2.</_></rects>
      <tilted>0</tilted></_>
    <_>
      <rects>
        <_>
          11 9 2 2 -1.</_>
        <_>
          11 10 2 1 2.</_></rects>
      <tilted>0</tilted></_>
    <_>
      <rects>
        <_>
          11 15 1 4 -1.</_>
        <_>
          11 17 1 2 2.</_></rects>
      <tilted>0</tilted></_>
    <_>
      <rects>
        <_>
          11 22 2 2 -1.</_>
        <_>
          12 22 1 2 2.</_></rects>
      <tilted>0</tilted></_>
    <_>
      <rects>
        <_>
          12 0 4 1 -1.</_>
        <_>
          14 0 2 1 2.</_></rects>
      <tilted>0</tilted></_>
    <_>
      <rects>
        <_>
          12 0 12 10 -1.</_>
        <_>
          12 0 6 5 2.</_>
        <_>
          18 5 6 5 2.</_></rects>
      <tilted>0</tilted></_>
    <_>
      <rects>
        <_>
          12 5 12 14 -1.</_>
        <_>
          12 12 12 7 2.</_></rects>
      <tilted>0</tilted></_>
    <_>
      <rects>
        <_>
          12 6 2 6 -1.</_>
        <_>
          13 6 1 6 2.</_></rects>
      <tilted>0</tilted></_>
    <_>
      <rects>
        <_>
          12 7 1 6 -1.</_>
        <_>
          12 10 1 3 2.</_></rects>
      <tilted>0</tilted></_>
    <_>
      <rects>
        <_>
          12 7 10 6 -1.</_>
        <_>
          12 7 5 3 2.</_>
        <_>
          17 10 5 3 2.</_></rects>
      <tilted>0</tilted></_>
    <_>
      <rects>
        <_>
          12 20 12 4 -1.</_>
        <_>
          16 20 4 4 2.</_></rects>
      <tilted>0</tilted></_>
    <_>
      <rects>
        <_>
          13 10 2 2 -1.</_>
        <_>
          14 10 1 2 2.</_></rects>
      <tilted>0</tilted></_>
    <_>
      <rects>
        <_>
          13 12 1 4 -1.</_>
        <_>
          13 14 1 2 2.</_></rects>
      <tilted>0</tilted></_>
    <_>
      <rects>
        <_>
          14 10 10 13 -1.</_>
        <_>
          19 10 5 13 2.</_></rects>
      <tilted>0</tilted></_>
    <_>
      <rects>
        <_>
          14 11 10 13 -1.</_>
        <_>
          19 11 5 13 2.</_></rects>
      <tilted>0</tilted></_>
    <_>
      <rects>
        <_>
          14 12 1 4 -1.</_>
        <_>
          14 14 1 2 2.</_></rects>
      <tilted>0</tilted></_>
    <_>
      <rects>
        <_>
          15 0 8 2 -1.</_>
        <_>
          15 1 8 1 2.</_></rects>
      <tilted>0</tilted></_>
    <_>
      <rects>
        <_>
          15 5 8 10 -1.</_>
        <_>
          15 5 4 5 2.</_>
        <_>
          19 10 4 5 2.</_></rects>
      <tilted>0</tilted></_>
    <_>
      <rects>
        <_>
          15 9 8 5 -1.</_>
        <_>
          19 9 4 5 2.</_></rects>
      <tilted>0</tilted></_>
    <_>
      <rects>
        <_>
          15 11 4 4 -1.</_>
        <_>
          15 13 4 2 2.</_></rects>
      <tilted>0</tilted></_>
    <_>
      <rects>
        <_>
          16 8 3 4 -1.</_>
        <_>
          16 10 3 2 2.</_></rects>
      <tilted>0</tilted></_>
    <_>
      <rects>
        <_>
          16 22 5 2 -1.</_>
        <_>
          16 23 5 1 2.</_></rects>
      <tilted>0</tilted></_>
    <_>
      <rects>
        <_>
          17 0 5 20 -1.</_>
        <_>
          17 10 5 10 2.</_></rects>
      <tilted>0</tilted></_>
    <_>
      <rects>
        <_>
          17 22 6 2 -1.</_>
        <_>
          17 23 6 1 2.</_></rects>
      <tilted>0</tilted></_>
    <_>
      <rects>
        <_>
          18 6 6 6 -1.</_>
        <_>
          21 6 3 6 2.</_></rects>
      <tilted>0</tilted></_>
    <_>
      <rects>
        <_>
          18 19 4 5 -1.</_>
        <_>
          20 19 2 5 2.</_></rects>
      <tilted>0</tilted></_>
    <_>
      <rects>
        <_>
          19 1 4 15 -1.</_>
        <_>
          19 6 4 5 2.</_></rects>
      <tilted>0</tilted></_>
    <_>
      <rects>
        <_>
          19 2 2 1 -1.</_>
        <_>
          20 2 1 1 2.</_></rects>
      <tilted>0</tilted></_>
    <_>
      <rects>
        <_>
          19 22 4 2 -1.</_>
        <_>
          19 23 4 1 2.</_></rects>
      <tilted>0</tilted></_>
    <_>
      <rects>
        <_>
          20 0 3 1 -1.</_>
        <_>
          21 0 1 1 2.</_></rects>
      <tilted>0</tilted></_>
    <_>
      <rects>
        <_>
          20 0 4 24 -1.</_>
        <_>
          22 0 2 24 2.</_></rects>
      <tilted>0</tilted></_>
    <_>
      <rects>
        <_>
          20 16 2 4 -1.</_>
        <_>
          20 16 1 2 2.</_>
        <_>
          21 18 1 2 2.</_></rects>
      <tilted>0</tilted></_>
    <_>
      <rects>
        <_>
          21 0 1 21 -1.</_>
        <_>
          21 7 1 7 2.</_></rects>
      <tilted>0</tilted></_>
    <_>
      <rects>
        <_>
          21 0 3 24 -1.</_>
        <_>
          22 0 1 24 2.</_></rects>
      <tilted>0</tilted></_>
    <_>
      <rects>
        <_>
          21 15 3 4 -1.</_>
        <_>
          21 17 3 2 2.</_></rects>
      <tilted>0</tilted></_>
    <_>
      <rects>
        <_>
          21 20 2 3 -1.</_>
        <_>
          22 20 1 3 2.</_></rects>
      <tilted>0</tilted></_>
    <_>
      <rects>
        <_>
          21 23 3 1 -1.</_>
        <_>
          22 23 1 1 2.</_></rects>
      <tilted>0</tilted></_>
    <_>
      <rects>
        <_>
          22 0 1 2 -1.</_>
        <_>
          22 1 1 1 2.</_></rects>
      <tilted>0</tilted></_>
    <_>
      <rects>
        <_>
          22 0 2 2 -1.</_>
        <_>
          23 0 1 2 2.</_></rects>
      <tilted>0</tilted></_>
    <_>
      <rects>
        <_>
          22 0 2 16 -1.</_>
        <_>
          23 0 1 16 2.</_></rects>
      <tilted>0</tilted></_>
    <_>
      <rects>
        <_>
          22 0 2 24 -1.</_>
        <_>
          23 0 1 24 2.</_></rects>
      <tilted>0</tilted></_>
    <_>
      <rects>
        <_>
          22 0 2 2 -1.</_>
        <_>
          22 1 2 1 2.</_></rects>
      <tilted>0</tilted></_>
    <_>
      <rects>
        <_>
          22 1 2 10 -1.</_>
        <_>
          23 1 1 10 2.</_></rects>
      <tilted>0</tilted></_>
    <_>
      <rects>
        <_>
          22 1 2 23 -1.</_>
        <_>
          23 1 1 23 2.</_></rects>
      <tilted>0</tilted></_>
    <_>
      <rects>
        <_>
          22 2 2 22 -1.</_>
        <_>
          23 2 1 22 2.</_></rects>
      <tilted>0</tilted></_>
    <_>
      <rects>
        <_>
          22 5 2 15 -1.</_>
        <_>
          23 5 1 15 2.</_></rects>
      <tilted>0</tilted></_>
    <_>
      <rects>
        <_>
          22 20 2 3 -1.</_>
        <_>
          23 20 1 3 2.</_></rects>
      <tilted>0</tilted></_>
    <_>
      <rects>
        <_>
          22 22 1 2 -1.</_>
        <_>
          22 23 1 1 2.</_></rects>
      <tilted>0</tilted></_>
    <_>
      <rects>
        <_>
          23 6 1 6 -1.</_>
        <_>
          23 8 1 2 2.</_></rects>
      <tilted>0</tilted></_>
    <_>
      <rects>
        <_>
          23 7 1 4 -1.</_>
        <_>
          23 9 1 2 2.</_></rects>
      <tilted>0</tilted></_>
    <_>
      <rects>
        <_>
          23 21 1 3 -1.</_>
        <_>
          23 22 1 1 2.</_></rects>
      <tilted>0</tilted></_></features></cascade>
</opencv_storage>
